    0.499790706165967102E+00    0.601978530777982246E+00    0.484885283729388128E+01    0.466388187284322575E+00    0.442593729244505962E+00    0.134425324100925081E+05   -0.182321556793954898E+00   -0.470659415648586037E+04   -0.470641183492906657E+04
    0.499932382567671696E+00    0.602914403393429055E+00    0.484299164751274880E+01    0.467047070297705480E+00    0.443216830142692253E+00    0.134438246912476043E+05   -0.182321556793954898E+00   -0.470724029706340843E+04   -0.470705797550661464E+04
    0.498982435634522492E+00    0.600908536279987970E+00    0.479671644522202101E+01    0.465936112175166228E+00    0.442177064566810940E+00    0.134480116583249928E+05   -0.182321556793954898E+00   -0.470933378060210271E+04   -0.470915145904530891E+04
    0.498677653112324593E+00    0.600661372733275356E+00    0.487044517416716971E+01    0.465886770446742871E+00    0.442134899719333729E+00    0.134463149335595226E+05   -0.182321556793954898E+00   -0.470848541821936760E+04   -0.470830309666257381E+04
    0.499498797169570907E+00    0.600042350153931037E+00    0.486924255548504270E+01    0.465023935583091852E+00    0.441303527501619441E+00    0.134403485759846790E+05   -0.182321556793954898E+00   -0.470550223943194578E+04   -0.470531991787515199E+04
    0.499498797169570907E+00    0.600042350153931037E+00    0.486924255548504270E+01    0.465023935583091852E+00    0.441303527501619441E+00    0.134403485759846790E+05   -0.182321556793954898E+00   -0.470550223943194578E+04   -0.470531991787515199E+04
    0.499498797169570907E+00    0.600042350153931037E+00    0.486924255548504270E+01    0.465023935583091852E+00    0.441303527501619441E+00    0.134403485759846790E+05   -0.182321556793954898E+00   -0.470550223943194578E+04   -0.470531991787515199E+04
